digraph Tree {
node [shape=box] ;
0 [label="A <= 0.5\nentropy = 0.997\nsamples = 64\nvalue = [30, 34]\nclass = y[1]"] ;
1 [label="E <= 0.5\nentropy = 0.954\nsamples = 32\nvalue = [12, 20]\nclass = y[1]"] ;
0 -> 1 [labeldistance=2.5, labelangle=45, headlabel="True"] ;
2 [label="F <= 0.5\nentropy = 1.0\nsamples = 16\nvalue = [8, 8]\nclass = y[0]"] ;
1 -> 2 ;
3 [label="C <= 0.5\nentropy = 0.811\nsamples = 8\nvalue = [2, 6]\nclass = y[1]"] ;
2 -> 3 ;
4 [label="D <= 0.5\nentropy = 1.0\nsamples = 4\nvalue = [2, 2]\nclass = y[0]"] ;
3 -> 4 ;
5 [label="entropy = 0.0\nsamples = 2\nvalue = [0, 2]\nclass = y[1]"] ;
4 -> 5 ;
6 [label="entropy = 0.0\nsamples = 2\nvalue = [2, 0]\nclass = y[0]"] ;
4 -> 6 ;
7 [label="entropy = 0.0\nsamples = 4\nvalue = [0, 4]\nclass = y[1]"] ;
3 -> 7 ;
8 [label="C <= 0.5\nentropy = 0.811\nsamples = 8\nvalue = [6, 2]\nclass = y[0]"] ;
2 -> 8 ;
9 [label="D <= 0.5\nentropy = 1.0\nsamples = 4\nvalue = [2, 2]\nclass = y[0]"] ;
8 -> 9 ;
10 [label="entropy = 0.0\nsamples = 2\nvalue = [2, 0]\nclass = y[0]"] ;
9 -> 10 ;
11 [label="entropy = 0.0\nsamples = 2\nvalue = [0, 2]\nclass = y[1]"] ;
9 -> 11 ;
12 [label="entropy = 0.0\nsamples = 4\nvalue = [4, 0]\nclass = y[0]"] ;
8 -> 12 ;
13 [label="D <= 0.5\nentropy = 0.811\nsamples = 16\nvalue = [4, 12]\nclass = y[1]"] ;
1 -> 13 ;
14 [label="entropy = 0.0\nsamples = 8\nvalue = [0, 8]\nclass = y[1]"] ;
13 -> 14 ;
15 [label="C <= 0.5\nentropy = 1.0\nsamples = 8\nvalue = [4, 4]\nclass = y[0]"] ;
13 -> 15 ;
16 [label="entropy = 0.0\nsamples = 4\nvalue = [4, 0]\nclass = y[0]"] ;
15 -> 16 ;
17 [label="entropy = 0.0\nsamples = 4\nvalue = [0, 4]\nclass = y[1]"] ;
15 -> 17 ;
18 [label="B <= 0.5\nentropy = 0.989\nsamples = 32\nvalue = [18, 14]\nclass = y[0]"] ;
0 -> 18 [labeldistance=2.5, labelangle=-45, headlabel="False"] ;
19 [label="E <= 0.5\nentropy = 0.954\nsamples = 16\nvalue = [6, 10]\nclass = y[1]"] ;
18 -> 19 ;
20 [label="F <= 0.5\nentropy = 1.0\nsamples = 8\nvalue = [4, 4]\nclass = y[0]"] ;
19 -> 20 ;
21 [label="D <= 0.5\nentropy = 0.811\nsamples = 4\nvalue = [1, 3]\nclass = y[1]"] ;
20 -> 21 ;
22 [label="entropy = 0.0\nsamples = 2\nvalue = [0, 2]\nclass = y[1]"] ;
21 -> 22 ;
23 [label="C <= 0.5\nentropy = 1.0\nsamples = 2\nvalue = [1, 1]\nclass = y[0]"] ;
21 -> 23 ;
24 [label="entropy = 0.0\nsamples = 1\nvalue = [1, 0]\nclass = y[0]"] ;
23 -> 24 ;
25 [label="entropy = 0.0\nsamples = 1\nvalue = [0, 1]\nclass = y[1]"] ;
23 -> 25 ;
26 [label="D <= 0.5\nentropy = 0.811\nsamples = 4\nvalue = [3, 1]\nclass = y[0]"] ;
20 -> 26 ;
27 [label="entropy = 0.0\nsamples = 2\nvalue = [2, 0]\nclass = y[0]"] ;
26 -> 27 ;
28 [label="C <= 0.5\nentropy = 1.0\nsamples = 2\nvalue = [1, 1]\nclass = y[0]"] ;
26 -> 28 ;
29 [label="entropy = 0.0\nsamples = 1\nvalue = [0, 1]\nclass = y[1]"] ;
28 -> 29 ;
30 [label="entropy = 0.0\nsamples = 1\nvalue = [1, 0]\nclass = y[0]"] ;
28 -> 30 ;
31 [label="C <= 0.5\nentropy = 0.811\nsamples = 8\nvalue = [2, 6]\nclass = y[1]"] ;
19 -> 31 ;
32 [label="D <= 0.5\nentropy = 1.0\nsamples = 4\nvalue = [2, 2]\nclass = y[0]"] ;
31 -> 32 ;
33 [label="entropy = 0.0\nsamples = 2\nvalue = [0, 2]\nclass = y[1]"] ;
32 -> 33 ;
34 [label="entropy = 0.0\nsamples = 2\nvalue = [2, 0]\nclass = y[0]"] ;
32 -> 34 ;
35 [label="entropy = 0.0\nsamples = 4\nvalue = [0, 4]\nclass = y[1]"] ;
31 -> 35 ;
36 [label="E <= 0.5\nentropy = 0.811\nsamples = 16\nvalue = [12, 4]\nclass = y[0]"] ;
18 -> 36 ;
37 [label="F <= 0.5\nentropy = 1.0\nsamples = 8\nvalue = [4, 4]\nclass = y[0]"] ;
36 -> 37 ;
38 [label="entropy = 0.0\nsamples = 4\nvalue = [4, 0]\nclass = y[0]"] ;
37 -> 38 ;
39 [label="entropy = 0.0\nsamples = 4\nvalue = [0, 4]\nclass = y[1]"] ;
37 -> 39 ;
40 [label="entropy = 0.0\nsamples = 8\nvalue = [8, 0]\nclass = y[0]"] ;
36 -> 40 ;
}